[
   {
      "config": {
         "name": "dense",
         "trainable": true,
         "batch_input_shape": [
            null,
            2
         ],
         "dtype": "float32",
         "units": 16,
         "activation": "relu",
         "use_bias": true,
         "kernel_initializer": {
            "class_name": "HeUniform",
            "config": {
               "seed": null
            }
         },
         "bias_initializer": {
            "class_name": "Zeros",
            "config": {}
         },
         "kernel_regularizer": null,
         "bias_regularizer": null,
         "activity_regularizer": null,
         "kernel_constraint": null,
         "bias_constraint": null
      },
      "weights_biases": [
         [
            [
               -1.5958551168441772,
               1.2662107944488525,
               -1.2316334247589111,
               -0.36487090587615967,
               0.6735643148422241,
               0.8775846362113953,
               -1.718583583831787,
               -0.5642189979553223,
               1.2098631858825684,
               1.1695858240127563,
               -0.9219231605529785,
               1.5015430450439453,
               0.08114951103925705,
               0.6701104044914246,
               1.4522854089736938,
               1.3802539110183716
            ],
            [
               0.8530068397521973,
               1.3344720602035522,
               -1.0119060277938843,
               0.5748502016067505,
               -1.6855242252349854,
               -1.2255618572235107,
               1.7181280851364136,
               0.31670379638671875,
               1.1584718227386475,
               -0.8338589668273926,
               0.6737633347511292,
               -1.3053154945373535,
               -0.9424580335617065,
               -0.6701036691665649,
               -1.2283525466918945,
               1.3742681741714478
            ]
         ],
         [
            -0.03970032557845116,
            -0.100061796605587,
            0.0,
            -0.0037508192472159863,
            -0.1381150186061859,
            0.3469589948654175,
            0.000339331803843379,
            0.015985777601599693,
            0.4057776927947998,
            -0.10076728463172913,
            0.02828800678253174,
            -0.05563481152057648,
            0.4771861135959625,
            -0.0001437738537788391,
            -0.011749861761927605,
            2.282651621499099e-06
         ]
      ]
   },
   {
      "config": {
         "name": "dense_1",
         "trainable": true,
         "dtype": "float32",
         "units": 8,
         "activation": "relu",
         "use_bias": true,
         "kernel_initializer": {
            "class_name": "HeUniform",
            "config": {
               "seed": null
            }
         },
         "bias_initializer": {
            "class_name": "Zeros",
            "config": {}
         },
         "kernel_regularizer": null,
         "bias_regularizer": null,
         "activity_regularizer": null,
         "kernel_constraint": null,
         "bias_constraint": null
      },
      "weights_biases": [
         [
            [
               0.2792012393474579,
               -0.04728633165359497,
               -0.3538273572921753,
               -0.2404181957244873,
               0.6888617873191833,
               -0.5417814254760742,
               -0.014559152536094189,
               0.46372491121292114
            ],
            [
               0.25990012288093567,
               -0.42604804039001465,
               -0.07789468765258789,
               -0.5436407327651978,
               -0.395491361618042,
               -0.11547104269266129,
               0.33776599168777466,
               0.30754706263542175
            ],
            [
               0.14076870679855347,
               0.20711082220077515,
               0.1506696343421936,
               -0.029150843620300293,
               0.45112162828445435,
               0.21751314401626587,
               0.3580157160758972,
               0.0735710859298706
            ],
            [
               -0.5899372100830078,
               -0.5209279656410217,
               -0.3748975694179535,
               0.37686213850975037,
               0.28025779128074646,
               0.25905144214630127,
               -0.02825789339840412,
               0.04782187566161156
            ],
            [
               0.07174414396286011,
               0.021115660667419434,
               0.38982707262039185,
               -0.5112848877906799,
               -0.3906509280204773,
               -0.47235095500946045,
               0.14386634528636932,
               -0.15946552157402039
            ],
            [
               -0.02775239571928978,
               0.589550793170929,
               -0.562584400177002,
               0.20241254568099976,
               -0.2211773693561554,
               -0.17205411195755005,
               0.7258091568946838,
               1.3081567287445068
            ],
            [
               -0.48488494753837585,
               0.10918432474136353,
               0.22585752606391907,
               0.4286623001098633,
               0.5646520256996155,
               0.28132760524749756,
               0.7077013254165649,
               -0.02921108715236187
            ],
            [
               -0.39287054538726807,
               0.08555424213409424,
               0.6906616687774658,
               -0.30272382497787476,
               0.2032766193151474,
               0.5386025309562683,
               0.7963565587997437,
               0.5026606917381287
            ],
            [
               0.5179346203804016,
               -0.5475956201553345,
               -0.22815823554992676,
               -0.432606965303421,
               0.46040138602256775,
               0.1553848832845688,
               0.4146740436553955,
               -0.3162113130092621
            ],
            [
               -0.30813512206077576,
               0.4336230158805847,
               0.2811605930328369,
               -0.496025025844574,
               0.44937753677368164,
               0.22000741958618164,
               -0.3755457103252411,
               0.40992027521133423
            ],
            [
               -0.29460591077804565,
               0.22035253047943115,
               0.9954488277435303,
               -0.41679275035858154,
               0.018215294927358627,
               -0.12955179810523987,
               0.7572880387306213,
               0.30953460931777954
            ],
            [
               -0.4932219982147217,
               -0.17419448494911194,
               0.29249075055122375,
               0.30578339099884033,
               0.5954052805900574,
               -0.36394932866096497,
               0.15252847969532013,
               -0.5956382155418396
            ],
            [
               0.7674159407615662,
               -0.031157195568084717,
               0.6779603362083435,
               0.13972848653793335,
               0.4124969244003296,
               -0.5913897752761841,
               0.06970242410898209,
               1.0091712474822998
            ],
            [
               -0.6794253587722778,
               -0.47801536321640015,
               0.5216094851493835,
               0.19688040018081665,
               -0.04039307311177254,
               0.4823654294013977,
               0.48478636145591736,
               -0.6549012064933777
            ],
            [
               -0.19251254200935364,
               -0.21823233366012573,
               0.485713392496109,
               -0.1881190538406372,
               0.5289897918701172,
               -0.1353294551372528,
               0.14611464738845825,
               -0.3111230731010437
            ],
            [
               -0.032389190047979355,
               -0.4453241229057312,
               -0.47156694531440735,
               0.35063934326171875,
               0.2578498125076294,
               -0.2604520320892334,
               -0.20461592078208923,
               -0.5262635946273804
            ]
         ],
         [
            0.2466728389263153,
            0.0,
            0.0008028938318602741,
            -0.01013617217540741,
            0.011071559973061085,
            -0.02574087493121624,
            0.05005371943116188,
            0.09888485819101334
         ]
      ]
   },
   {
      "config": {
         "name": "dense_2",
         "trainable": true,
         "dtype": "float32",
         "units": 4,
         "activation": "relu",
         "use_bias": true,
         "kernel_initializer": {
            "class_name": "HeUniform",
            "config": {
               "seed": null
            }
         },
         "bias_initializer": {
            "class_name": "Zeros",
            "config": {}
         },
         "kernel_regularizer": null,
         "bias_regularizer": null,
         "activity_regularizer": null,
         "kernel_constraint": null,
         "bias_constraint": null
      },
      "weights_biases": [
         [
            [
               1.1267660856246948,
               1.0237255096435547,
               -0.8005810976028442,
               0.06634058803319931
            ],
            [
               -0.5367041826248169,
               -0.6422258615493774,
               -0.7076605558395386,
               -0.5408215522766113
            ],
            [
               0.35120800137519836,
               0.48624956607818604,
               -0.07272114604711533,
               -0.6287245750427246
            ],
            [
               -0.5840021371841431,
               0.2027866244316101,
               0.4469243586063385,
               -0.20953282713890076
            ],
            [
               -0.25058263540267944,
               -0.42174291610717773,
               0.8411266803741455,
               0.47221750020980835
            ],
            [
               -0.5223240256309509,
               0.6724094152450562,
               0.3122657835483551,
               -0.585391640663147
            ],
            [
               -0.008456191048026085,
               0.2850899398326874,
               0.42580389976501465,
               -0.438282310962677
            ],
            [
               0.5400814414024353,
               1.0045175552368164,
               -0.3128497004508972,
               0.06412439048290253
            ]
         ],
         [
            0.4401855170726776,
            0.14132900536060333,
            0.09771613776683807,
            0.11355868726968765
         ]
      ]
   },
   {
      "config": {
         "name": "dense_3",
         "trainable": true,
         "dtype": "float32",
         "units": 1,
         "activation": "sigmoid",
         "use_bias": true,
         "kernel_initializer": {
            "class_name": "GlorotUniform",
            "config": {
               "seed": null
            }
         },
         "bias_initializer": {
            "class_name": "Zeros",
            "config": {}
         },
         "kernel_regularizer": null,
         "bias_regularizer": null,
         "activity_regularizer": null,
         "kernel_constraint": null,
         "bias_constraint": null
      },
      "weights_biases": [
         [
            [
               -0.8944737911224365
            ],
            [
               -1.310633897781372
            ],
            [
               1.3204753398895264
            ],
            [
               -0.6423805952072144
            ]
         ],
         [
            -0.06876319646835327
         ]
      ]
   }
]