[
   {
      "config": {
         "name": "conv2d",
         "trainable": true,
         "batch_input_shape": [
            null,
            4,
            4,
            3
         ],
         "dtype": "float32",
         "filters": 32,
         "kernel_size": [
            2,
            2
         ],
         "strides": [
            1,
            1
         ],
         "padding": "same",
         "data_format": "channels_last",
         "dilation_rate": [
            1,
            1
         ],
         "groups": 1,
         "activation": "relu",
         "use_bias": true,
         "kernel_initializer": {
            "class_name": "RandomNormal",
            "config": {
               "mean": 0.0,
               "stddev": 0.01,
               "seed": 1
            }
         },
         "bias_initializer": {
            "class_name": "RandomNormal",
            "config": {
               "mean": 0.0,
               "stddev": 0.01,
               "seed": 1
            }
         },
         "kernel_regularizer": null,
         "bias_regularizer": null,
         "activity_regularizer": null,
         "kernel_constraint": null,
         "bias_constraint": null
      },
      "weights_biases": [
         [
            [
               [
                  [
                     0.001266503008082509,
                     -0.004930165596306324,
                     0.0063119069673120975,
                     -0.00788846518844366,
                     0.0056830886751413345,
                     -0.015569936484098434,
                     -0.014428716152906418,
                     0.002422313205897808,
                     -0.022694965824484825,
                     0.010227469727396965,
                     0.005021712742745876,
                     -0.03896768391132355,
                     0.011691167019307613,
                     0.0017902390100061893,
                     0.002656559692695737,
                     -0.0030885711312294006,
                     0.018476251512765884,
                     -0.00980347953736782,
                     0.01931579038500786,
                     -0.016846664249897003,
                     0.010996997356414795,
                     -0.007310856599360704,
                     0.002909549744799733,
                     -0.00911802053451538,
                     -0.010787292383611202,
                     -0.005686433054506779,
                     0.008867570199072361,
                     -0.007446973584592342,
                     -0.007595567964017391,
                     -0.008738630451261997,
                     -0.01165063213557005,
                     -0.0024735413026064634
                  ],
                  [
                     0.004013560712337494,
                     0.005571414716541767,
                     -0.008008050732314587,
                     0.004991751629859209,
                     0.003028483595699072,
                     0.019447840750217438,
                     0.005360305309295654,
                     -0.0051569752395153046,
                     -0.0039015875663608313,
                     6.1000813730061054e-05,
                     0.0036321894731372595,
                     -0.006182379089295864,
                     -0.002048729220405221,
                     0.015835508704185486,
                     -0.003937538247555494,
                     0.00011575331882340834,
                     -0.002090852940455079,
                     0.010036206804215908,
                     -0.003370494581758976,
                     0.008044090121984482,
                     -0.015685178339481354,
                     0.0015803083078935742,
                     0.0042227949015796185,
                     0.008210360072553158,
                     0.0027509494684636593,
                     -0.013367656618356705,
                     0.002808348508551717,
                     0.0019733153749257326,
                     0.009972131811082363,
                     -0.0036569577641785145,
                     -0.0009138275636360049,
                     -0.00044656230602413416
                  ],
                  [
                     0.008947991766035557,
                     -0.002084204461425543,
                     -0.005097405984997749,
                     0.010011703707277775,
                     -0.009454823099076748,
                     0.003798749763518572,
                     -0.005052593071013689,
                     0.0010312630329281092,
                     -0.015162038616836071,
                     0.004874424077570438,
                     0.004975598771125078,
                     -0.007967215031385422,
                     -0.014991255477070808,
                     -0.004924128297716379,
                     -0.019836528226733208,
                     -0.003546713851392269,
                     0.0013649173779413104,
                     -0.006290894467383623,
                     0.005512753035873175,
                     0.02435324527323246,
                     0.009571107104420662,
                     0.0025331987999379635,
                     -0.0009214856545440853,
                     -0.003791327588260174,
                     -0.005779029801487923,
                     -0.01590483821928501,
                     0.005244022700935602,
                     -0.009031063877046108,
                     0.003906674683094025,
                     -0.013098948635160923,
                     0.01029785256832838,
                     -0.002628536429256201
                  ]
               ],
               [
                  [
                     -0.011117732152342796,
                     0.01237794104963541,
                     0.004046918824315071,
                     -0.006260144058614969,
                     0.006765981670469046,
                     0.015681661665439606,
                     -0.004880368243902922,
                     -0.017994727939367294,
                     -0.00304382829926908,
                     0.0017369335982948542,
                     -0.0018229931592941284,
                     -0.008763187564909458,
                     -0.0045935166999697685,
                     0.002134377835318446,
                     -0.007297540549188852,
                     -0.008059697225689888,
                     -0.002792876912280917,
                     -0.00787024013698101,
                     0.005031839478760958,
                     -0.007896315306425095,
                     0.01483344566076994,
                     0.016544898971915245,
                     -0.008421733044087887,
                     -0.0029238476417958736,
                     0.004722318612039089,
                     0.008064410649240017,
                     0.012910868972539902,
                     0.013501595705747604,
                     -0.006613349076360464,
                     0.011021238751709461,
                     0.005403920076787472,
                     0.004715356044471264
                  ],
                  [
                     -0.010441036894917488,
                     -0.011410216800868511,
                     -0.011144770309329033,
                     -0.010127976536750793,
                     -0.0038474786560982466,
                     0.00785843189805746,
                     -0.01149912178516388,
                     -0.0019151289016008377,
                     0.01487460546195507,
                     0.00643991818651557,
                     0.020696474239230156,
                     -0.0004724430327769369,
                     -0.0052482811734080315,
                     0.0005143500166013837,
                     0.02054315246641636,
                     -0.01863156445324421,
                     -0.0005390702863223851,
                     -0.009226123802363873,
                     -0.0070274299941957,
                     0.0019405772909522057,
                     0.005816862918436527,
                     0.002183318603783846,
                     0.013297926634550095,
                     0.007954111322760582,
                     0.004975476767867804,
                     -0.0035448812413960695,
                     0.005695005413144827,
                     -0.005486763548105955,
                     0.010426871478557587,
                     0.00783728901296854,
                     0.005694366525858641,
                     -0.010472042486071587
                  ],
                  [
                     -0.01704874448478222,
                     -0.003783576190471649,
                     -0.004855155944824219,
                     -0.0028102784417569637,
                     -0.0018036611145362258,
                     -0.00958124827593565,
                     0.019795728847384453,
                     0.010559390299022198,
                     0.010752871632575989,
                     -0.0037339164409786463,
                     -0.012325899675488472,
                     -0.004858584143221378,
                     0.0015541830798611045,
                     -0.019376933574676514,
                     0.0058555202558636665,
                     -0.0025972691364586353,
                     0.013780442997813225,
                     -0.008156019262969494,
                     0.0033305531833320856,
                     0.001593282911926508,
                     0.0028619051445275545,
                     0.0059427074156701565,
                     0.0037348552141338587,
                     0.005526915192604065,
                     -0.0014980447012931108,
                     -0.016567232087254524,
                     -0.00527638616040349,
                     -0.0027601008769124746,
                     0.00653304997831583,
                     0.00999305211007595,
                     0.003135701408609748,
                     -0.0005366953555494547
                  ]
               ]
            ],
            [
               [
                  [
                     -0.0025302462745457888,
                     -0.0003486680216155946,
                     -0.01511668972671032,
                     -0.011270570568740368,
                     0.008086745627224445,
                     0.0007480776403099298,
                     0.016894392669200897,
                     -0.022713882848620415,
                     0.003591107903048396,
                     -0.0031729312613606453,
                     0.00022733425430487841,
                     0.01243964396417141,
                     0.007839541882276535,
                     0.012587160803377628,
                     0.01719079725444317,
                     0.007188911084085703,
                     0.0029236148111522198,
                     -0.008571367710828781,
                     -0.00398206477984786,
                     0.023094797506928444,
                     0.00048759073251858354,
                     0.012108709663152695,
                     0.0054236166179180145,
                     0.0049291267059743404,
                     -0.011214613914489746,
                     -0.008354449644684792,
                     0.00747684296220541,
                     -0.015694579109549522,
                     -0.007915319874882698,
                     0.004869393073022366,
                     0.015283679589629173,
                     -0.005774776916950941
                  ],
                  [
                     -0.0024544568732380867,
                     -0.006284907925873995,
                     -0.0022691411431878805,
                     0.004506557248532772,
                     -0.011896329000592232,
                     0.0023617877159267664,
                     -0.00724567286670208,
                     -0.009103179909288883,
                     -0.010721555911004543,
                     0.006008869968354702,
                     -0.010565415024757385,
                     0.007595124654471874,
                     -0.007882487960159779,
                     -0.012009919621050358,
                     -0.015649573877453804,
                     0.003930726088583469,
                     0.004748576320707798,
                     -0.0017779639456421137,
                     -0.0232219360768795,
                     0.011201945133507252,
                     0.003089320380240679,
                     0.014798258431255817,
                     0.005972122307866812,
                     -0.006415471434593201,
                     0.018620690330863,
                     0.013347310945391655,
                     -0.02038981206715107,
                     -0.0021895403042435646,
                     0.009290901944041252,
                     -0.004977826494723558,
                     -0.0015449972124770284,
                     0.006460943259298801
                  ],
                  [
                     -0.013969404622912407,
                     -0.014820663258433342,
                     -0.005292860325425863,
                     -0.014493750408291817,
                     0.007447131909430027,
                     -0.005288777407258749,
                     0.008776691742241383,
                     -0.018351487815380096,
                     -0.018648479133844376,
                     -0.0011908512096852064,
                     -0.000887668167706579,
                     0.003787196008488536,
                     0.024236464872956276,
                     0.0049024359323084354,
                     0.012033600360155106,
                     -0.0038984534330666065,
                     0.006049334071576595,
                     -0.007150482852011919,
                     0.014134202152490616,
                     0.013723243027925491,
                     0.004445952363312244,
                     0.00033854201319627464,
                     0.011698073707520962,
                     0.0027496633119881153,
                     -0.009326200000941753,
                     0.00488298898562789,
                     -0.009171247482299805,
                     0.0005201663007028401,
                     -0.013336483389139175,
                     -0.0030705328099429607,
                     0.0006634287419728935,
                     -0.005550650414079428
                  ]
               ],
               [
                  [
                     -0.0028272741474211216,
                     0.013500058092176914,
                     -0.01342768408358097,
                     -0.0086198216304183,
                     -0.01156177744269371,
                     0.021497564390301704,
                     0.0026814627926796675,
                     -0.0230522770434618,
                     -0.015814976766705513,
                     0.0038059509824961424,
                     0.02026967890560627,
                     -0.012422376312315464,
                     0.008648017421364784,
                     0.002114006318151951,
                     -0.009997472167015076,
                     0.004553220700472593,
                     0.02887078747153282,
                     0.00802590511739254,
                     0.004705990664660931,
                     0.0016291876090690494,
                     -0.01507845614105463,
                     0.01482120156288147,
                     0.0033588879741728306,
                     0.01902535744011402,
                     0.020827431231737137,
                     0.010893290862441063,
                     -0.004650784190744162,
                     -0.00768605712801218,
                     0.01397677231580019,
                     0.004990981891751289,
                     0.006453482899814844,
                     0.005680249072611332
                  ],
                  [
                     0.005106539465487003,
                     -0.009851140901446342,
                     -0.0020536580123007298,
                     -0.0036612176336348057,
                     0.0009061727323569357,
                     -0.008587874472141266,
                     -0.026188716292381287,
                     -0.013193528167903423,
                     -0.005494369193911552,
                     0.004940777085721493,
                     -0.009530723094940186,
                     -0.01037922315299511,
                     0.001131512806750834,
                     -0.004828722216188908,
                     -0.01769714616239071,
                     -0.0012194453738629818,
                     0.003930418286472559,
                     0.009339743293821812,
                     -0.00444354023784399,
                     0.0021084912586957216,
                     -0.008446285501122475,
                     -0.002964071463793516,
                     -0.002111441222950816,
                     0.009627587161958218,
                     0.0032984609715640545,
                     -0.0002500492555554956,
                     -0.00740062678232789,
                     -0.005768150091171265,
                     0.005093683954328299,
                     -0.002326951827853918,
                     0.02168198488652706,
                     -0.013256619684398174
                  ],
                  [
                     0.018947502598166466,
                     -0.009893564507365227,
                     -0.002788319019600749,
                     -0.0006300765671767294,
                     -0.03237886726856232,
                     0.005707102362066507,
                     0.010873355902731419,
                     0.008356957696378231,
                     0.0010112411109730601,
                     0.00439256289973855,
                     0.006363400723785162,
                     0.006435627117753029,
                     -0.00039495574310421944,
                     0.002488155849277973,
                     0.01329860184341669,
                     -0.00410838657990098,
                     0.011411814019083977,
                     -0.007329318206757307,
                     0.010830906219780445,
                     0.0014467710861936212,
                     0.0097886323928833,
                     0.016321640461683273,
                     -0.0129990940913558,
                     0.003003273159265518,
                     -0.017473675310611725,
                     -0.022338593378663063,
                     0.002135487971827388,
                     -0.010278371162712574,
                     0.0017990086926147342,
                     -0.00591308856382966,
                     0.011735044419765472,
                     0.012596690095961094
                  ]
               ]
            ]
         ],
         [
            0.001266503008082509,
            -0.004930165596306324,
            0.0063119069673120975,
            -0.00788846518844366,
            0.0056830886751413345,
            -0.015569936484098434,
            -0.014428716152906418,
            0.002422313205897808,
            -0.022694965824484825,
            0.010227469727396965,
            0.005021712742745876,
            -0.03896768391132355,
            0.011691167019307613,
            0.0017902390100061893,
            0.002656559692695737,
            -0.0030885711312294006,
            0.018476251512765884,
            -0.00980347953736782,
            0.01931579038500786,
            -0.016846664249897003,
            0.010996997356414795,
            -0.007310856599360704,
            0.002909549744799733,
            -0.00911802053451538,
            -0.010787292383611202,
            -0.005686433054506779,
            0.008867570199072361,
            -0.007446973584592342,
            -0.007595567964017391,
            -0.008738630451261997,
            -0.01165063213557005,
            -0.0024735413026064634
         ]
      ]
   },
   {
      "config": {
         "name": "max_pooling2d",
         "trainable": true,
         "dtype": "float32",
         "pool_size": [
            4,
            4
         ],
         "padding": "valid",
         "strides": [
            4,
            4
         ],
         "data_format": "channels_last"
      },
      "weights_biases": []
   },
   {
      "config": {
         "name": "flatten",
         "trainable": true,
         "dtype": "float32",
         "data_format": "channels_last"
      },
      "weights_biases": []
   },
   {
      "config": {
         "name": "dense",
         "trainable": true,
         "dtype": "float32",
         "units": 8,
         "activation": "linear",
         "use_bias": true,
         "kernel_initializer": {
            "class_name": "RandomNormal",
            "config": {
               "mean": 0.0,
               "stddev": 0.01,
               "seed": 1
            }
         },
         "bias_initializer": {
            "class_name": "Zeros",
            "config": {}
         },
         "kernel_regularizer": null,
         "bias_regularizer": null,
         "activity_regularizer": null,
         "kernel_constraint": null,
         "bias_constraint": null
      },
      "weights_biases": [
         [
            [
               0.001266503008082509,
               -0.004930165596306324,
               0.0063119069673120975,
               -0.00788846518844366,
               0.0056830886751413345,
               -0.015569936484098434,
               -0.014428716152906418,
               0.002422313205897808
            ],
            [
               -0.022694965824484825,
               0.010227469727396965,
               0.005021712742745876,
               -0.03896768391132355,
               0.011691167019307613,
               0.0017902390100061893,
               0.002656559692695737,
               -0.0030885711312294006
            ],
            [
               0.018476251512765884,
               -0.00980347953736782,
               0.01931579038500786,
               -0.016846664249897003,
               0.010996997356414795,
               -0.007310856599360704,
               0.002909549744799733,
               -0.00911802053451538
            ],
            [
               -0.010787292383611202,
               -0.005686433054506779,
               0.008867570199072361,
               -0.007446973584592342,
               -0.007595567964017391,
               -0.008738630451261997,
               -0.01165063213557005,
               -0.0024735413026064634
            ],
            [
               0.004013560712337494,
               0.005571414716541767,
               -0.008008050732314587,
               0.004991751629859209,
               0.003028483595699072,
               0.019447840750217438,
               0.005360305309295654,
               -0.0051569752395153046
            ],
            [
               -0.0039015875663608313,
               6.1000813730061054e-05,
               0.0036321894731372595,
               -0.006182379089295864,
               -0.002048729220405221,
               0.015835508704185486,
               -0.003937538247555494,
               0.00011575331882340834
            ],
            [
               -0.002090852940455079,
               0.010036206804215908,
               -0.003370494581758976,
               0.008044090121984482,
               -0.015685178339481354,
               0.0015803083078935742,
               0.0042227949015796185,
               0.008210360072553158
            ],
            [
               0.0027509494684636593,
               -0.013367656618356705,
               0.002808348508551717,
               0.0019733153749257326,
               0.009972131811082363,
               -0.0036569577641785145,
               -0.0009138275636360049,
               -0.00044656230602413416
            ],
            [
               0.008947991766035557,
               -0.002084204461425543,
               -0.005097405984997749,
               0.010011703707277775,
               -0.009454823099076748,
               0.003798749763518572,
               -0.005052593071013689,
               0.0010312630329281092
            ],
            [
               -0.015162038616836071,
               0.004874424077570438,
               0.004975598771125078,
               -0.007967215031385422,
               -0.014991255477070808,
               -0.004924128297716379,
               -0.019836528226733208,
               -0.003546713851392269
            ],
            [
               0.0013649173779413104,
               -0.006290894467383623,
               0.005512753035873175,
               0.02435324527323246,
               0.009571107104420662,
               0.0025331987999379635,
               -0.0009214856545440853,
               -0.003791327588260174
            ],
            [
               -0.005779029801487923,
               -0.01590483821928501,
               0.005244022700935602,
               -0.009031063877046108,
               0.003906674683094025,
               -0.013098948635160923,
               0.01029785256832838,
               -0.002628536429256201
            ],
            [
               -0.011117732152342796,
               0.01237794104963541,
               0.004046918824315071,
               -0.006260144058614969,
               0.006765981670469046,
               0.015681661665439606,
               -0.004880368243902922,
               -0.017994727939367294
            ],
            [
               -0.00304382829926908,
               0.0017369335982948542,
               -0.0018229931592941284,
               -0.008763187564909458,
               -0.0045935166999697685,
               0.002134377835318446,
               -0.007297540549188852,
               -0.008059697225689888
            ],
            [
               -0.002792876912280917,
               -0.00787024013698101,
               0.005031839478760958,
               -0.007896315306425095,
               0.01483344566076994,
               0.016544898971915245,
               -0.008421733044087887,
               -0.0029238476417958736
            ],
            [
               0.004722318612039089,
               0.008064410649240017,
               0.012910868972539902,
               0.013501595705747604,
               -0.006613349076360464,
               0.011021238751709461,
               0.005403920076787472,
               0.004715356044471264
            ],
            [
               -0.010441036894917488,
               -0.011410216800868511,
               -0.011144770309329033,
               -0.010127976536750793,
               -0.0038474786560982466,
               0.00785843189805746,
               -0.01149912178516388,
               -0.0019151289016008377
            ],
            [
               0.01487460546195507,
               0.00643991818651557,
               0.020696474239230156,
               -0.0004724430327769369,
               -0.0052482811734080315,
               0.0005143500166013837,
               0.02054315246641636,
               -0.01863156445324421
            ],
            [
               -0.0005390702863223851,
               -0.009226123802363873,
               -0.0070274299941957,
               0.0019405772909522057,
               0.005816862918436527,
               0.002183318603783846,
               0.013297926634550095,
               0.007954111322760582
            ],
            [
               0.004975476767867804,
               -0.0035448812413960695,
               0.005695005413144827,
               -0.005486763548105955,
               0.010426871478557587,
               0.00783728901296854,
               0.005694366525858641,
               -0.010472042486071587
            ],
            [
               -0.01704874448478222,
               -0.003783576190471649,
               -0.004855155944824219,
               -0.0028102784417569637,
               -0.0018036611145362258,
               -0.00958124827593565,
               0.019795728847384453,
               0.010559390299022198
            ],
            [
               0.010752871632575989,
               -0.0037339164409786463,
               -0.012325899675488472,
               -0.004858584143221378,
               0.0015541830798611045,
               -0.019376933574676514,
               0.0058555202558636665,
               -0.0025972691364586353
            ],
            [
               0.013780442997813225,
               -0.008156019262969494,
               0.0033305531833320856,
               0.001593282911926508,
               0.0028619051445275545,
               0.0059427074156701565,
               0.0037348552141338587,
               0.005526915192604065
            ],
            [
               -0.0014980447012931108,
               -0.016567232087254524,
               -0.00527638616040349,
               -0.0027601008769124746,
               0.00653304997831583,
               0.00999305211007595,
               0.003135701408609748,
               -0.0005366953555494547
            ],
            [
               -0.0025302462745457888,
               -0.0003486680216155946,
               -0.01511668972671032,
               -0.011270570568740368,
               0.008086745627224445,
               0.0007480776403099298,
               0.016894392669200897,
               -0.022713882848620415
            ],
            [
               0.003591107903048396,
               -0.0031729312613606453,
               0.00022733425430487841,
               0.01243964396417141,
               0.007839541882276535,
               0.012587160803377628,
               0.01719079725444317,
               0.007188911084085703
            ],
            [
               0.0029236148111522198,
               -0.008571367710828781,
               -0.00398206477984786,
               0.023094797506928444,
               0.00048759073251858354,
               0.012108709663152695,
               0.0054236166179180145,
               0.0049291267059743404
            ],
            [
               -0.011214613914489746,
               -0.008354449644684792,
               0.00747684296220541,
               -0.015694579109549522,
               -0.007915319874882698,
               0.004869393073022366,
               0.015283679589629173,
               -0.005774776916950941
            ],
            [
               -0.0024544568732380867,
               -0.006284907925873995,
               -0.0022691411431878805,
               0.004506557248532772,
               -0.011896329000592232,
               0.0023617877159267664,
               -0.00724567286670208,
               -0.009103179909288883
            ],
            [
               -0.010721555911004543,
               0.006008869968354702,
               -0.010565415024757385,
               0.007595124654471874,
               -0.007882487960159779,
               -0.012009919621050358,
               -0.015649573877453804,
               0.003930726088583469
            ],
            [
               0.004748576320707798,
               -0.0017779639456421137,
               -0.0232219360768795,
               0.011201945133507252,
               0.003089320380240679,
               0.014798258431255817,
               0.005972122307866812,
               -0.006415471434593201
            ],
            [
               0.018620690330863,
               0.013347310945391655,
               -0.02038981206715107,
               -0.0021895403042435646,
               0.009290901944041252,
               -0.004977826494723558,
               -0.0015449972124770284,
               0.006460943259298801
            ]
         ],
         [
            0.0,
            0.0,
            0.0,
            0.0,
            0.0,
            0.0,
            0.0,
            0.0
         ]
      ]
   }
]